digraph Tree {
node [shape=box, style="filled, rounded", color="black", fontname=helvetica] ;
edge [fontname=helvetica] ;
0 [label="Left-Distance <= 1.5\nentropy = 1.32\nsamples = 443\nvalue = [35, 201, 207]\nclass = R", fillcolor="#fcfafe"] ;
1 [label="Right-Weight <= 1.5\nentropy = 0.86\nsamples = 89\nvalue = [8, 8, 73]\nclass = R", fillcolor="#9a60ea"] ;
0 -> 1 [labeldistance=2.5, labelangle=45, headlabel="True"] ;
2 [label="Right-Distance <= 2.5\nentropy = 1.51\nsamples = 19\nvalue = [4, 6, 9]\nclass = R", fillcolor="#e2d1f9"] ;
1 -> 2 ;
3 [label="Left-Weight <= 1.5\nentropy = 1.15\nsamples = 7\nvalue = [1, 5, 1]\nclass = B", fillcolor="#7beeab"] ;
2 -> 3 ;
4 [label="entropy = 0.0\nsamples = 1\nvalue = [0, 0, 1]\nclass = R", fillcolor="#8139e5"] ;
3 -> 4 ;
5 [label="Left-Weight <= 2.5\nentropy = 0.65\nsamples = 6\nvalue = [1, 5, 0]\nclass = B", fillcolor="#61ea9a"] ;
3 -> 5 ;
6 [label="entropy = 1.0\nsamples = 2\nvalue = [1, 1, 0]\nclass = L", fillcolor="#ffffff"] ;
5 -> 6 ;
7 [label="entropy = 0.0\nsamples = 4\nvalue = [0, 4, 0]\nclass = B", fillcolor="#39e581"] ;
5 -> 7 ;
8 [label="Left-Weight <= 4.5\nentropy = 1.19\nsamples = 12\nvalue = [3, 1, 8]\nclass = R", fillcolor="#b991f1"] ;
2 -> 8 ;
9 [label="Left-Weight <= 2.5\nentropy = 0.72\nsamples = 10\nvalue = [2, 0, 8]\nclass = R", fillcolor="#a06aec"] ;
8 -> 9 ;
10 [label="entropy = 0.0\nsamples = 5\nvalue = [0, 0, 5]\nclass = R", fillcolor="#8139e5"] ;
9 -> 10 ;
11 [label="entropy = 0.97\nsamples = 5\nvalue = [2, 0, 3]\nclass = R", fillcolor="#d5bdf6"] ;
9 -> 11 ;
12 [label="Right-Distance <= 4.5\nentropy = 1.0\nsamples = 2\nvalue = [1, 1, 0]\nclass = L", fillcolor="#ffffff"] ;
8 -> 12 ;
13 [label="entropy = 0.0\nsamples = 1\nvalue = [0, 1, 0]\nclass = B", fillcolor="#39e581"] ;
12 -> 13 ;
14 [label="entropy = 0.0\nsamples = 1\nvalue = [1, 0, 0]\nclass = L", fillcolor="#e58139"] ;
12 -> 14 ;
15 [label="Right-Distance <= 1.5\nentropy = 0.5\nsamples = 70\nvalue = [4, 2, 64]\nclass = R", fillcolor="#8c4be7"] ;
1 -> 15 ;
16 [label="Left-Weight <= 3.5\nentropy = 1.38\nsamples = 12\nvalue = [3, 2, 7]\nclass = R", fillcolor="#c7a7f3"] ;
15 -> 16 ;
17 [label="Right-Weight <= 2.5\nentropy = 0.54\nsamples = 8\nvalue = [1, 0, 7]\nclass = R", fillcolor="#9355e9"] ;
16 -> 17 ;
18 [label="entropy = 0.0\nsamples = 1\nvalue = [1, 0, 0]\nclass = L", fillcolor="#e58139"] ;
17 -> 18 ;
19 [label="entropy = 0.0\nsamples = 7\nvalue = [0, 0, 7]\nclass = R", fillcolor="#8139e5"] ;
17 -> 19 ;
20 [label="Right-Weight <= 3.5\nentropy = 1.0\nsamples = 4\nvalue = [2, 2, 0]\nclass = L", fillcolor="#ffffff"] ;
16 -> 20 ;
21 [label="entropy = 0.0\nsamples = 1\nvalue = [0, 1, 0]\nclass = B", fillcolor="#39e581"] ;
20 -> 21 ;
22 [label="entropy = 0.92\nsamples = 3\nvalue = [2, 1, 0]\nclass = L", fillcolor="#f2c09c"] ;
20 -> 22 ;
23 [label="Right-Distance <= 2.5\nentropy = 0.13\nsamples = 58\nvalue = [1, 0, 57]\nclass = R", fillcolor="#833ce5"] ;
15 -> 23 ;
24 [label="Left-Weight <= 3.5\nentropy = 0.37\nsamples = 14\nvalue = [1, 0, 13]\nclass = R", fillcolor="#8b48e7"] ;
23 -> 24 ;
25 [label="entropy = 0.0\nsamples = 11\nvalue = [0, 0, 11]\nclass = R", fillcolor="#8139e5"] ;
24 -> 25 ;
26 [label="entropy = 0.92\nsamples = 3\nvalue = [1, 0, 2]\nclass = R", fillcolor="#c09cf2"] ;
24 -> 26 ;
27 [label="entropy = 0.0\nsamples = 44\nvalue = [0, 0, 44]\nclass = R", fillcolor="#8139e5"] ;
23 -> 27 ;
28 [label="Right-Weight <= 2.5\nentropy = 1.29\nsamples = 354\nvalue = [27, 193, 134]\nclass = B", fillcolor="#caf8dd"] ;
0 -> 28 [labeldistance=2.5, labelangle=-45, headlabel="False"] ;
29 [label="Left-Weight <= 2.5\nentropy = 1.05\nsamples = 148\nvalue = [14, 111, 23]\nclass = B", fillcolor="#74eda6"] ;
28 -> 29 ;
30 [label="Right-Distance <= 3.5\nentropy = 1.45\nsamples = 65\nvalue = [11, 34, 20]\nclass = B", fillcolor="#c1f7d8"] ;
29 -> 30 ;
31 [label="Left-Distance <= 3.5\nentropy = 1.12\nsamples = 40\nvalue = [6, 29, 5]\nclass = B", fillcolor="#79edaa"] ;
30 -> 31 ;
32 [label="entropy = 1.42\nsamples = 23\nvalue = [5, 13, 5]\nclass = B", fillcolor="#a7f3c7"] ;
31 -> 32 ;
33 [label="entropy = 0.32\nsamples = 17\nvalue = [1, 16, 0]\nclass = B", fillcolor="#45e789"] ;
31 -> 33 ;
34 [label="Left-Weight <= 1.5\nentropy = 1.37\nsamples = 25\nvalue = [5, 5, 15]\nclass = R", fillcolor="#c09cf2"] ;
30 -> 34 ;
35 [label="entropy = 0.65\nsamples = 12\nvalue = [2, 0, 10]\nclass = R", fillcolor="#9a61ea"] ;
34 -> 35 ;
36 [label="entropy = 1.55\nsamples = 13\nvalue = [3, 5, 5]\nclass = B", fillcolor="#ffffff"] ;
34 -> 36 ;
37 [label="Right-Distance <= 4.5\nentropy = 0.45\nsamples = 83\nvalue = [3, 77, 3]\nclass = B", fillcolor="#48e78a"] ;
29 -> 37 ;
38 [label="Left-Distance <= 2.5\nentropy = 0.19\nsamples = 67\nvalue = [2, 65, 0]\nclass = B", fillcolor="#3fe685"] ;
37 -> 38 ;
39 [label="entropy = 0.52\nsamples = 17\nvalue = [2, 15, 0]\nclass = B", fillcolor="#53e892"] ;
38 -> 39 ;
40 [label="entropy = 0.0\nsamples = 50\nvalue = [0, 50, 0]\nclass = B", fillcolor="#39e581"] ;
38 -> 40 ;
41 [label="Right-Weight <= 1.5\nentropy = 1.01\nsamples = 16\nvalue = [1, 12, 3]\nclass = B", fillcolor="#76eda8"] ;
37 -> 41 ;
42 [label="entropy = 0.0\nsamples = 8\nvalue = [0, 8, 0]\nclass = B", fillcolor="#39e581"] ;
41 -> 42 ;
43 [label="entropy = 1.41\nsamples = 8\nvalue = [1, 4, 3]\nclass = B", fillcolor="#d7fae6"] ;
41 -> 43 ;
44 [label="Right-Distance <= 3.5\nentropy = 1.26\nsamples = 206\nvalue = [13, 82, 111]\nclass = R", fillcolor="#e2d1f9"] ;
28 -> 44 ;
45 [label="Left-Weight <= 2.5\nentropy = 1.23\nsamples = 124\nvalue = [8, 73, 43]\nclass = B", fillcolor="#b6f5d0"] ;
44 -> 45 ;
46 [label="Right-Distance <= 1.5\nentropy = 1.04\nsamples = 43\nvalue = [2, 10, 31]\nclass = R", fillcolor="#af81ee"] ;
45 -> 46 ;
47 [label="entropy = 0.92\nsamples = 12\nvalue = [0, 8, 4]\nclass = B", fillcolor="#9cf2c0"] ;
46 -> 47 ;
48 [label="entropy = 0.68\nsamples = 31\nvalue = [2, 2, 27]\nclass = R", fillcolor="#9254e9"] ;
46 -> 48 ;
49 [label="Left-Distance <= 3.5\nentropy = 0.97\nsamples = 81\nvalue = [6, 63, 12]\nclass = B", fillcolor="#6deca2"] ;
45 -> 49 ;
50 [label="entropy = 1.27\nsamples = 42\nvalue = [4, 26, 12]\nclass = B", fillcolor="#a3f3c4"] ;
49 -> 50 ;
51 [label="entropy = 0.29\nsamples = 39\nvalue = [2, 37, 0]\nclass = B", fillcolor="#44e688"] ;
49 -> 51 ;
52 [label="Left-Distance <= 3.5\nentropy = 0.82\nsamples = 82\nvalue = [5, 9, 68]\nclass = R", fillcolor="#995fea"] ;
44 -> 52 ;
53 [label="entropy = 0.0\nsamples = 38\nvalue = [0, 0, 38]\nclass = R", fillcolor="#8139e5"] ;
52 -> 53 ;
54 [label="Left-Weight <= 2.5\nentropy = 1.2\nsamples = 44\nvalue = [5, 9, 30]\nclass = R", fillcolor="#b388ef"] ;
52 -> 54 ;
55 [label="entropy = 0.0\nsamples = 17\nvalue = [0, 0, 17]\nclass = R", fillcolor="#8139e5"] ;
54 -> 55 ;
56 [label="entropy = 1.49\nsamples = 27\nvalue = [5, 9, 13]\nclass = R", fillcolor="#e3d3f9"] ;
54 -> 56 ;
}